digraph Tree {
node [shape=box, fontname="helvetica"] ;
edge [fontname="helvetica"] ;
0 [label="X[0] <= 5.45\ngini = 0.496\nsamples = 70\nvalue = [32, 38]"] ;
1 [label="X[1] <= 2.7\ngini = 0.175\nsamples = 31\nvalue = [28, 3]"] ;
0 -> 1 [labeldistance=2.5, labelangle=45, headlabel="True"] ;
2 [label="gini = 0.0\nsamples = 3\nvalue = [0, 3]"] ;
1 -> 2 ;
3 [label="gini = 0.0\nsamples = 28\nvalue = [28, 0]"] ;
1 -> 3 ;
4 [label="X[1] <= 3.45\ngini = 0.184\nsamples = 39\nvalue = [4, 35]"] ;
0 -> 4 [labeldistance=2.5, labelangle=-45, headlabel="False"] ;
5 [label="gini = 0.0\nsamples = 35\nvalue = [0, 35]"] ;
4 -> 5 ;
6 [label="gini = 0.0\nsamples = 4\nvalue = [4, 0]"] ;
4 -> 6 ;
}